digraph Tree {
node [shape=box] ;
0 [label="X[1] <= 1.186\ngini = 0.499\nsamples = 300\nvalue = [155, 145]"] ;
1 [label="X[0] <= -0.735\ngini = 0.397\nsamples = 187\nvalue = [136, 51]"] ;
0 -> 1 [labeldistance=2.5, labelangle=45, headlabel="True"] ;
2 [label="X[1] <= -3.258\ngini = 0.434\nsamples = 69\nvalue = [22, 47]"] ;
1 -> 2 ;
3 [label="X[0] <= -4.954\ngini = 0.36\nsamples = 17\nvalue = [13, 4]"] ;
2 -> 3 ;
4 [label="gini = 0.0\nsamples = 3\nvalue = [0, 3]"] ;
3 -> 4 ;
5 [label="gini = 0.133\nsamples = 14\nvalue = [13, 1]"] ;
3 -> 5 ;
6 [label="X[0] <= -2.947\ngini = 0.286\nsamples = 52\nvalue = [9, 43]"] ;
2 -> 6 ;
7 [label="gini = 0.0\nsamples = 29\nvalue = [0, 29]"] ;
6 -> 7 ;
8 [label="gini = 0.476\nsamples = 23\nvalue = [9, 14]"] ;
6 -> 8 ;
9 [label="X[1] <= 0.199\ngini = 0.065\nsamples = 118\nvalue = [114, 4]"] ;
1 -> 9 ;
10 [label="X[1] <= -0.778\ngini = 0.02\nsamples = 98\nvalue = [97, 1]"] ;
9 -> 10 ;
11 [label="gini = 0.0\nsamples = 82\nvalue = [82, 0]"] ;
10 -> 11 ;
12 [label="gini = 0.117\nsamples = 16\nvalue = [15, 1]"] ;
10 -> 12 ;
13 [label="X[1] <= 0.263\ngini = 0.255\nsamples = 20\nvalue = [17, 3]"] ;
9 -> 13 ;
14 [label="gini = 0.0\nsamples = 2\nvalue = [0, 2]"] ;
13 -> 14 ;
15 [label="gini = 0.105\nsamples = 18\nvalue = [17, 1]"] ;
13 -> 15 ;
16 [label="X[0] <= 4.51\ngini = 0.28\nsamples = 113\nvalue = [19, 94]"] ;
0 -> 16 [labeldistance=2.5, labelangle=-45, headlabel="False"] ;
17 [label="X[0] <= 1.769\ngini = 0.159\nsamples = 103\nvalue = [9, 94]"] ;
16 -> 17 ;
18 [label="X[0] <= 1.178\ngini = 0.048\nsamples = 81\nvalue = [2, 79]"] ;
17 -> 18 ;
19 [label="gini = 0.027\nsamples = 73\nvalue = [1, 72]"] ;
18 -> 19 ;
20 [label="gini = 0.219\nsamples = 8\nvalue = [1, 7]"] ;
18 -> 20 ;
21 [label="X[1] <= 3.406\ngini = 0.434\nsamples = 22\nvalue = [7, 15]"] ;
17 -> 21 ;
22 [label="gini = 0.486\nsamples = 12\nvalue = [7, 5]"] ;
21 -> 22 ;
23 [label="gini = 0.0\nsamples = 10\nvalue = [0, 10]"] ;
21 -> 23 ;
24 [label="gini = 0.0\nsamples = 10\nvalue = [10, 0]"] ;
16 -> 24 ;
}