digraph Tree {
node [shape=box] ;
0 [label="X[1] <= 1.186\ngini = 0.499\nsamples = 300\nvalue = [155, 145]"] ;
1 [label="X[0] <= -0.735\ngini = 0.397\nsamples = 187\nvalue = [136, 51]"] ;
0 -> 1 [labeldistance=2.5, labelangle=45, headlabel="True"] ;
2 [label="X[1] <= -3.258\ngini = 0.434\nsamples = 69\nvalue = [22, 47]"] ;
1 -> 2 ;
3 [label="X[0] <= -4.954\ngini = 0.36\nsamples = 17\nvalue = [13, 4]"] ;
2 -> 3 ;
4 [label="gini = 0.0\nsamples = 3\nvalue = [0, 3]"] ;
3 -> 4 ;
5 [label="X[0] <= -2.773\ngini = 0.133\nsamples = 14\nvalue = [13, 1]"] ;
3 -> 5 ;
6 [label="X[0] <= -2.919\ngini = 0.32\nsamples = 5\nvalue = [4, 1]"] ;
5 -> 6 ;
7 [label="gini = 0.0\nsamples = 4\nvalue = [4, 0]"] ;
6 -> 7 ;
8 [label="gini = 0.0\nsamples = 1\nvalue = [0, 1]"] ;
6 -> 8 ;
9 [label="gini = 0.0\nsamples = 9\nvalue = [9, 0]"] ;
5 -> 9 ;
10 [label="X[0] <= -2.947\ngini = 0.286\nsamples = 52\nvalue = [9, 43]"] ;
2 -> 10 ;
11 [label="gini = 0.0\nsamples = 29\nvalue = [0, 29]"] ;
10 -> 11 ;
12 [label="X[1] <= -2.289\ngini = 0.476\nsamples = 23\nvalue = [9, 14]"] ;
10 -> 12 ;
13 [label="gini = 0.0\nsamples = 2\nvalue = [2, 0]"] ;
12 -> 13 ;
14 [label="X[1] <= 0.803\ngini = 0.444\nsamples = 21\nvalue = [7, 14]"] ;
12 -> 14 ;
15 [label="X[1] <= -0.092\ngini = 0.484\nsamples = 17\nvalue = [7, 10]"] ;
14 -> 15 ;
16 [label="X[0] <= -1.126\ngini = 0.408\nsamples = 14\nvalue = [4, 10]"] ;
15 -> 16 ;
17 [label="X[0] <= -1.708\ngini = 0.298\nsamples = 11\nvalue = [2, 9]"] ;
16 -> 17 ;
18 [label="X[0] <= -2.038\ngini = 0.48\nsamples = 5\nvalue = [2, 3]"] ;
17 -> 18 ;
19 [label="X[1] <= -2.043\ngini = 0.375\nsamples = 4\nvalue = [1, 3]"] ;
18 -> 19 ;
20 [label="gini = 0.0\nsamples = 1\nvalue = [1, 0]"] ;
19 -> 20 ;
21 [label="gini = 0.0\nsamples = 3\nvalue = [0, 3]"] ;
19 -> 21 ;
22 [label="gini = 0.0\nsamples = 1\nvalue = [1, 0]"] ;
18 -> 22 ;
23 [label="gini = 0.0\nsamples = 6\nvalue = [0, 6]"] ;
17 -> 23 ;
24 [label="X[1] <= -1.707\ngini = 0.444\nsamples = 3\nvalue = [2, 1]"] ;
16 -> 24 ;
25 [label="gini = 0.0\nsamples = 2\nvalue = [2, 0]"] ;
24 -> 25 ;
26 [label="gini = 0.0\nsamples = 1\nvalue = [0, 1]"] ;
24 -> 26 ;
27 [label="gini = 0.0\nsamples = 3\nvalue = [3, 0]"] ;
15 -> 27 ;
28 [label="gini = 0.0\nsamples = 4\nvalue = [0, 4]"] ;
14 -> 28 ;
29 [label="X[1] <= 0.199\ngini = 0.065\nsamples = 118\nvalue = [114, 4]"] ;
1 -> 29 ;
30 [label="X[1] <= -0.778\ngini = 0.02\nsamples = 98\nvalue = [97, 1]"] ;
29 -> 30 ;
31 [label="gini = 0.0\nsamples = 82\nvalue = [82, 0]"] ;
30 -> 31 ;
32 [label="X[1] <= -0.711\ngini = 0.117\nsamples = 16\nvalue = [15, 1]"] ;
30 -> 32 ;
33 [label="gini = 0.0\nsamples = 1\nvalue = [0, 1]"] ;
32 -> 33 ;
34 [label="gini = 0.0\nsamples = 15\nvalue = [15, 0]"] ;
32 -> 34 ;
35 [label="X[1] <= 0.263\ngini = 0.255\nsamples = 20\nvalue = [17, 3]"] ;
29 -> 35 ;
36 [label="gini = 0.0\nsamples = 2\nvalue = [0, 2]"] ;
35 -> 36 ;
37 [label="X[0] <= 1.126\ngini = 0.105\nsamples = 18\nvalue = [17, 1]"] ;
35 -> 37 ;
38 [label="X[0] <= 0.389\ngini = 0.444\nsamples = 3\nvalue = [2, 1]"] ;
37 -> 38 ;
39 [label="gini = 0.0\nsamples = 2\nvalue = [2, 0]"] ;
38 -> 39 ;
40 [label="gini = 0.0\nsamples = 1\nvalue = [0, 1]"] ;
38 -> 40 ;
41 [label="gini = 0.0\nsamples = 15\nvalue = [15, 0]"] ;
37 -> 41 ;
42 [label="X[0] <= 4.51\ngini = 0.28\nsamples = 113\nvalue = [19, 94]"] ;
0 -> 42 [labeldistance=2.5, labelangle=-45, headlabel="False"] ;
43 [label="X[0] <= 1.769\ngini = 0.159\nsamples = 103\nvalue = [9, 94]"] ;
42 -> 43 ;
44 [label="X[0] <= 1.178\ngini = 0.048\nsamples = 81\nvalue = [2, 79]"] ;
43 -> 44 ;
45 [label="X[0] <= -0.449\ngini = 0.027\nsamples = 73\nvalue = [1, 72]"] ;
44 -> 45 ;
46 [label="gini = 0.0\nsamples = 46\nvalue = [0, 46]"] ;
45 -> 46 ;
47 [label="X[0] <= -0.425\ngini = 0.071\nsamples = 27\nvalue = [1, 26]"] ;
45 -> 47 ;
48 [label="gini = 0.0\nsamples = 1\nvalue = [1, 0]"] ;
47 -> 48 ;
49 [label="gini = 0.0\nsamples = 26\nvalue = [0, 26]"] ;
47 -> 49 ;
50 [label="X[0] <= 1.223\ngini = 0.219\nsamples = 8\nvalue = [1, 7]"] ;
44 -> 50 ;
51 [label="gini = 0.0\nsamples = 1\nvalue = [1, 0]"] ;
50 -> 51 ;
52 [label="gini = 0.0\nsamples = 7\nvalue = [0, 7]"] ;
50 -> 52 ;
53 [label="X[1] <= 3.406\ngini = 0.434\nsamples = 22\nvalue = [7, 15]"] ;
43 -> 53 ;
54 [label="X[1] <= 1.845\ngini = 0.486\nsamples = 12\nvalue = [7, 5]"] ;
53 -> 54 ;
55 [label="X[0] <= 2.008\ngini = 0.375\nsamples = 4\nvalue = [1, 3]"] ;
54 -> 55 ;
56 [label="gini = 0.0\nsamples = 1\nvalue = [1, 0]"] ;
55 -> 56 ;
57 [label="gini = 0.0\nsamples = 3\nvalue = [0, 3]"] ;
55 -> 57 ;
58 [label="X[0] <= 2.995\ngini = 0.375\nsamples = 8\nvalue = [6, 2]"] ;
54 -> 58 ;
59 [label="gini = 0.0\nsamples = 4\nvalue = [4, 0]"] ;
58 -> 59 ;
60 [label="X[0] <= 3.099\ngini = 0.5\nsamples = 4\nvalue = [2, 2]"] ;
58 -> 60 ;
61 [label="gini = 0.0\nsamples = 1\nvalue = [0, 1]"] ;
60 -> 61 ;
62 [label="X[1] <= 2.33\ngini = 0.444\nsamples = 3\nvalue = [2, 1]"] ;
60 -> 62 ;
63 [label="gini = 0.0\nsamples = 1\nvalue = [0, 1]"] ;
62 -> 63 ;
64 [label="gini = 0.0\nsamples = 2\nvalue = [2, 0]"] ;
62 -> 64 ;
65 [label="gini = 0.0\nsamples = 10\nvalue = [0, 10]"] ;
53 -> 65 ;
66 [label="gini = 0.0\nsamples = 10\nvalue = [10, 0]"] ;
42 -> 66 ;
}